svm_type c_svc
kernel_type rbf
gamma 0.25
nr_class 2
total_sv 9
rho 0.0864362
label 1 -1
nr_sv 5 4
SV
0.05886821168032784 1:5.8 2:4 3:1.2 4:0.2 
0.338874969393977 1:5.7 2:3.8 3:1.7 4:0.3 
0.04515556344262695 1:4.8 2:3.4 3:1.9 4:0.2 
1 1:4.5 2:2.3 3:1.3 4:0.3 
0.7215590959555798 1:5.1 2:3.8 3:1.9 4:0.4 
-0.5786269317807736 1:7 2:3.2 3:4.7 4:1.4 
-1 1:4.9 2:2.4 3:3.3 4:1 
-0.1601960955190961 1:6.7 2:3 3:5 4:1.7 
-0.4256348131726418 1:5 2:2.3 3:3.3 4:1 
